Language model created by QuickLM on Thu Jul 14 02:24:09 EDT 2016
Copyright (c) 1996-2010 Carnegie Mellon University and Alexander I. Rudnicky

The model is in standard ARPA format, designed by Doug Paul while he was at MITRE.

The code that was used to produce this language model is available in Open Source.
Please visit http://www.speech.cs.cmu.edu/tools/ for more information

The (fixed) discount mass is 0.5. The backoffs are computed using the ratio method.
This model based on a corpus of 66 sentences and 66 words

\data\
ngram 1=66
ngram 2=131
ngram 3=125

\1-grams:
-0.9394 </s> -0.3010
-0.9394 <s> -0.2197
-2.7589 A -0.2988
-2.0599 ALL -0.2949
-2.4579 AM -0.2980
-2.4579 ANGRY -0.2480
-2.4579 ARE -0.2988
-2.4579 BORN -0.2480
-2.7589 BUSINESS -0.3003
-2.4579 BYE -0.2480
-2.7589 CLOSE -0.2480
-2.4579 CREATIVE -0.2480
-2.7589 DARK -0.2480
-2.7589 DEFINE -0.2480
-2.7589 DO -0.2980
-2.7589 EXIT -0.2480
-1.9808 FEELING -0.2965
-2.7589 FIREFOX -0.2480
-2.7589 GO -0.3003
-2.7589 GOOD -0.2995
-1.9138 HOW -0.2793
-2.4579 HOW'S -0.2856
-2.7589 HOWS -0.2926
-2.1569 I -0.2463
-2.2818 I'M -0.2965
-2.7589 IMAGES -0.2480
-1.8558 IS -0.2777
-2.7589 IT -0.2480
-2.7589 IT'S -0.2988
-2.2818 JOKE -0.2480
-2.4579 LAZY -0.2480
-2.4579 LIGHTS -0.2995
-2.4579 LIKE -0.2480
-2.4579 LOOK -0.2480
-2.7589 ME -0.3003
-2.7589 MIX -0.2480
-2.2818 MUSIC -0.2480
-2.4579 NAME -0.2480
-2.7589 NEWS -0.2480
-2.4579 NOTE -0.2480
-2.2818 NOTES -0.2480
-2.4579 OFF -0.2480
-2.7589 OPEN -0.3003
-2.2818 PARTY -0.2949
-2.2818 PLAY -0.2445
-2.7589 QUIT -0.2480
-2.7589 SHOW -0.2972
-2.4579 SLEEP -0.2480
-2.7589 SOME -0.2988
-2.7589 STOP -0.2480
-2.4579 TELL -0.2980
-1.8047 THE -0.2856
-1.9138 TIME -0.2411
-2.7589 TO -0.2995
-2.7589 TURN -0.2942
-2.7589 TWEET -0.2480
-2.7589 UPLOAD -0.2480
-2.4579 UPLOADS -0.2480
-1.7175 WEATHER -0.2463
-2.7589 WERE -0.2988
-1.9808 WHAT -0.2895
-2.1569 WHAT'S -0.2926
-2.4579 WHERE -0.2988
-2.4579 WHO -0.2980
-2.2818 YOU -0.2463
-2.4579 YOUR -0.2995

\2-grams:
-1.5185 <s> ALL 0.0000
-2.1206 <s> BUSINESS 0.0000
-2.1206 <s> BYE 0.0000
-2.1206 <s> CLOSE 0.0000
-2.1206 <s> DARK 0.0000
-2.1206 <s> DEFINE 0.0000
-2.1206 <s> EXIT 0.0000
-1.6435 <s> FEELING 0.0000
-2.1206 <s> GO 0.0000
-2.1206 <s> GOOD 0.0000
-1.2755 <s> HOW 0.0000
-1.8195 <s> HOW'S 0.0000
-2.1206 <s> HOWS 0.0000
-1.6435 <s> I'M 0.0000
-2.1206 <s> IT'S 0.0000
-2.1206 <s> JOKE 0.0000
-2.1206 <s> LIGHTS 0.0000
-2.1206 <s> MUSIC 0.0000
-2.1206 <s> NOTE 0.0000
-2.1206 <s> NOTES 0.0000
-2.1206 <s> OPEN 0.0000
-1.8195 <s> PARTY 0.0000
-1.6435 <s> PLAY 0.0000
-2.1206 <s> QUIT 0.0000
-2.1206 <s> SHOW 0.0000
-2.1206 <s> SLEEP 0.0000
-2.1206 <s> STOP 0.0000
-1.8195 <s> TELL 0.0000
-2.1206 <s> TIME -0.0580
-2.1206 <s> TURN 0.0000
-2.1206 <s> TWEET 0.0000
-2.1206 <s> UPLOAD 0.0000
-2.1206 <s> UPLOADS 0.0000
-2.1206 <s> WEATHER -0.0726
-1.3424 <s> WHAT 0.0000
-1.5185 <s> WHAT'S 0.0000
-1.8195 <s> WHERE 0.0000
-1.8195 <s> WHO 0.0000
-0.3010 A JOKE 0.0000
-1.0000 ALL IMAGES 0.0000
-1.0000 ALL NOTE 0.0000
-0.6990 ALL NOTES 0.0000
-1.0000 ALL UPLOADS 0.0000
-0.3010 AM I -0.1761
-0.3010 ANGRY </s> -0.3010
-0.3010 ARE YOU -0.1249
-0.3010 BORN </s> -0.3010
-0.3010 BUSINESS NEWS 0.0000
-0.3010 BYE </s> -0.3010
-0.3010 CLOSE </s> -0.3010
-0.3010 CREATIVE </s> -0.3010
-0.3010 DARK </s> -0.3010
-0.3010 DEFINE </s> -0.3010
-0.3010 DO I -0.1761
-0.3010 EXIT </s> -0.3010
-0.7782 FEELING ANGRY 0.0000
-0.7782 FEELING CREATIVE 0.0000
-0.7782 FEELING LAZY 0.0000
-0.3010 FIREFOX </s> -0.3010
-0.3010 GO TO 0.0000
-0.3010 GOOD BYE 0.0000
-1.1461 HOW AM 0.0000
-1.1461 HOW ARE 0.0000
-1.1461 HOW DO 0.0000
-1.1461 HOW I -0.1761
-0.8451 HOW IS -0.1383
-1.1461 HOW WEATHER -0.0726
-0.6021 HOW'S THE -0.1249
-0.6021 HOW'S WEATHER -0.0726
-0.3010 HOWS WEATHER -0.0726
-0.6021 I </s> -0.3010
-0.6021 I LOOK 0.0000
-0.3010 I'M FEELING 0.0000
-0.3010 IMAGES </s> -0.3010
-1.2041 IS IT 0.0000
-0.6021 IS THE -0.0458
-1.2041 IS TIME -0.0580
-1.2041 IS WEATHER -0.0726
-1.2041 IS YOUR 0.0000
-0.3010 IT </s> -0.3010
-0.3010 IT'S PARTY -0.1249
-0.3010 JOKE </s> -0.3010
-0.3010 LAZY </s> -0.3010
-0.3010 LIGHTS OFF 0.0000
-0.3010 LIKE </s> -0.3010
-0.3010 LOOK </s> -0.3010
-0.3010 ME A 0.0000
-0.3010 MIX </s> -0.3010
-0.3010 MUSIC </s> -0.3010
-0.3010 NAME </s> -0.3010
-0.3010 NEWS </s> -0.3010
-0.3010 NOTE </s> -0.3010
-0.3010 NOTES </s> -0.3010
-0.3010 OFF </s> -0.3010
-0.3010 OPEN FIREFOX 0.0000
-0.7782 PARTY MIX 0.0000
-0.4771 PARTY TIME -0.0580
-0.7782 PLAY </s> -0.3010
-0.7782 PLAY MUSIC 0.0000
-0.7782 PLAY SOME 0.0000
-0.3010 QUIT </s> -0.3010
-0.3010 SHOW ALL -0.2041
-0.3010 SLEEP </s> -0.3010
-0.3010 SOME MUSIC 0.0000
-0.3010 STOP </s> -0.3010
-0.6021 TELL JOKE 0.0000
-0.6021 TELL ME 0.0000
-1.2553 THE LIGHTS 0.0000
-0.9542 THE TIME -0.0580
-0.4771 THE WEATHER 0.0000
-0.3680 TIME </s> -0.3010
-1.1461 TIME IS -0.2730
-0.3010 TO SLEEP 0.0000
-0.3010 TURN THE -0.2762
-0.3010 TWEET </s> -0.3010
-0.3010 UPLOAD </s> -0.3010
-0.3010 UPLOADS </s> -0.3010
-0.3882 WEATHER </s> -0.3010
-1.0414 WEATHER LIKE 0.0000
-0.3010 WERE YOU -0.2218
-0.3802 WHAT IS -0.0969
-1.0792 WHAT TIME -0.2688
-0.4260 WHAT'S THE -0.0458
-0.9031 WHAT'S YOUR 0.0000
-0.6021 WHERE BORN 0.0000
-0.6021 WHERE WERE 0.0000
-0.6021 WHO AM 0.0000
-0.6021 WHO ARE 0.0000
-0.4771 YOU </s> -0.3010
-0.7782 YOU BORN 0.0000
-0.3010 YOUR NAME 0.0000

\3-grams:
-0.9031 <s> ALL IMAGES
-0.9031 <s> ALL NOTE
-0.9031 <s> ALL NOTES
-0.9031 <s> ALL UPLOADS
-0.3010 <s> BUSINESS NEWS
-0.3010 <s> BYE </s>
-0.3010 <s> CLOSE </s>
-0.3010 <s> DARK </s>
-0.3010 <s> DEFINE </s>
-0.3010 <s> EXIT </s>
-0.7782 <s> FEELING ANGRY
-0.7782 <s> FEELING CREATIVE
-0.7782 <s> FEELING LAZY
-0.3010 <s> GO TO
-0.3010 <s> GOOD BYE
-1.1461 <s> HOW AM
-1.1461 <s> HOW ARE
-1.1461 <s> HOW DO
-1.1461 <s> HOW I
-0.8451 <s> HOW IS
-1.1461 <s> HOW WEATHER
-0.6021 <s> HOW'S THE
-0.6021 <s> HOW'S WEATHER
-0.3010 <s> HOWS WEATHER
-0.3010 <s> I'M FEELING
-0.3010 <s> IT'S PARTY
-0.3010 <s> JOKE </s>
-0.3010 <s> LIGHTS OFF
-0.3010 <s> MUSIC </s>
-0.3010 <s> NOTE </s>
-0.3010 <s> NOTES </s>
-0.3010 <s> OPEN FIREFOX
-0.6021 <s> PARTY MIX
-0.6021 <s> PARTY TIME
-0.7782 <s> PLAY </s>
-0.7782 <s> PLAY MUSIC
-0.7782 <s> PLAY SOME
-0.3010 <s> QUIT </s>
-0.3010 <s> SHOW ALL
-0.3010 <s> SLEEP </s>
-0.3010 <s> STOP </s>
-0.6021 <s> TELL JOKE
-0.6021 <s> TELL ME
-0.3010 <s> TIME </s>
-0.3010 <s> TURN THE
-0.3010 <s> TWEET </s>
-0.3010 <s> UPLOAD </s>
-0.3010 <s> UPLOADS </s>
-0.3010 <s> WEATHER </s>
-0.3802 <s> WHAT IS
-1.0792 <s> WHAT TIME
-0.4260 <s> WHAT'S THE
-0.9031 <s> WHAT'S YOUR
-0.6021 <s> WHERE BORN
-0.6021 <s> WHERE WERE
-0.6021 <s> WHO AM
-0.6021 <s> WHO ARE
-0.3010 A JOKE </s>
-0.3010 ALL IMAGES </s>
-0.3010 ALL NOTE </s>
-0.3010 ALL NOTES </s>
-0.3010 ALL UPLOADS </s>
-0.3010 AM I </s>
-0.3010 ARE YOU </s>
-0.3010 BUSINESS NEWS </s>
-0.3010 DO I LOOK
-0.3010 FEELING ANGRY </s>
-0.3010 FEELING CREATIVE </s>
-0.3010 FEELING LAZY </s>
-0.3010 GO TO SLEEP
-0.3010 GOOD BYE </s>
-0.3010 HOW AM I
-0.3010 HOW ARE YOU
-0.3010 HOW DO I
-0.3010 HOW I LOOK
-0.6021 HOW IS THE
-0.6021 HOW IS WEATHER
-0.3010 HOW WEATHER </s>
-0.3010 HOW'S THE WEATHER
-0.3010 HOW'S WEATHER </s>
-0.3010 HOWS WEATHER </s>
-0.3010 I LOOK </s>
-0.7782 I'M FEELING ANGRY
-0.7782 I'M FEELING CREATIVE
-0.7782 I'M FEELING LAZY
-0.3010 IS IT </s>
-0.9031 IS THE TIME
-0.4260 IS THE WEATHER
-0.3010 IS TIME </s>
-0.3010 IS WEATHER </s>
-0.3010 IS YOUR NAME
-0.3010 IT'S PARTY TIME
-0.3010 LIGHTS OFF </s>
-0.3010 ME A JOKE
-0.3010 OPEN FIREFOX </s>
-0.3010 PARTY MIX </s>
-0.3010 PARTY TIME </s>
-0.3010 PLAY MUSIC </s>
-0.3010 PLAY SOME MUSIC
-0.3010 SHOW ALL NOTES
-0.3010 SOME MUSIC </s>
-0.3010 TELL JOKE </s>
-0.3010 TELL ME A
-0.3010 THE LIGHTS OFF
-0.3010 THE TIME </s>
-0.4771 THE WEATHER </s>
-0.7782 THE WEATHER LIKE
-0.3010 TIME IS IT
-0.3010 TO SLEEP </s>
-0.3010 TURN THE LIGHTS
-0.3010 WEATHER LIKE </s>
-0.3010 WERE YOU BORN
-0.5229 WHAT IS THE
-1.0000 WHAT IS TIME
-1.0000 WHAT IS YOUR
-0.3010 WHAT TIME IS
-0.7782 WHAT'S THE TIME
-0.4771 WHAT'S THE WEATHER
-0.3010 WHAT'S YOUR NAME
-0.3010 WHERE BORN </s>
-0.3010 WHERE WERE YOU
-0.3010 WHO AM I
-0.3010 WHO ARE YOU
-0.3010 YOU BORN </s>
-0.3010 YOUR NAME </s>

\end\
